digraph Tree {
node [shape=box, style="filled, rounded", color="black", fontname="helvetica"] ;
edge [fontname="helvetica"] ;
0 [label="delta_s_mix <= 0.26\ngini = 0.5\nsamples = 1129\nvalue = [967, 840]\nclass = C", fillcolor="#fceee5"] ;
1 [label="delta_s_mix <= 0.25\ngini = 0.07\nsamples = 281\nvalue = [16, 447]\nclass = l", fillcolor="#40a1e6"] ;
0 -> 1 [labeldistance=2.5, labelangle=45, headlabel="True"] ;
2 [label="tm <= 0.22\ngini = 0.02\nsamples = 262\nvalue = [4, 424]\nclass = l", fillcolor="#3b9ee5"] ;
1 -> 2 ;
3 [label="k <= 0.21\ngini = 0.29\nsamples = 12\nvalue = [3, 14]\nclass = l", fillcolor="#63b2eb"] ;
2 -> 3 ;
4 [label="gini = 0.0\nsamples = 10\nvalue = [0, 14]\nclass = l", fillcolor="#399de5"] ;
3 -> 4 ;
5 [label="gini = 0.0\nsamples = 2\nvalue = [3, 0]\nclass = C", fillcolor="#e58139"] ;
3 -> 5 ;
6 [label="tm <= 0.32\ngini = 0.0\nsamples = 250\nvalue = [1, 410]\nclass = l", fillcolor="#399de5"] ;
2 -> 6 ;
7 [label="gini = 0.05\nsamples = 24\nvalue = [1, 36]\nclass = l", fillcolor="#3ea0e6"] ;
6 -> 7 ;
8 [label="gini = 0.0\nsamples = 226\nvalue = [0, 374]\nclass = l", fillcolor="#399de5"] ;
6 -> 8 ;
9 [label="vm <= 0.05\ngini = 0.45\nsamples = 19\nvalue = [12, 23]\nclass = l", fillcolor="#a0d0f3"] ;
1 -> 9 ;
10 [label="vac <= 0.21\ngini = 0.16\nsamples = 13\nvalue = [2, 21]\nclass = l", fillcolor="#4ca6e7"] ;
9 -> 10 ;
11 [label="gini = 0.44\nsamples = 3\nvalue = [2, 4]\nclass = l", fillcolor="#9ccef2"] ;
10 -> 11 ;
12 [label="gini = 0.0\nsamples = 10\nvalue = [0, 17]\nclass = l", fillcolor="#399de5"] ;
10 -> 12 ;
13 [label="k <= 0.22\ngini = 0.28\nsamples = 6\nvalue = [10, 2]\nclass = C", fillcolor="#ea9a61"] ;
9 -> 13 ;
14 [label="gini = 0.0\nsamples = 1\nvalue = [0, 1]\nclass = l", fillcolor="#399de5"] ;
13 -> 14 ;
15 [label="gini = 0.17\nsamples = 5\nvalue = [10, 1]\nclass = C", fillcolor="#e88e4d"] ;
13 -> 15 ;
16 [label="delta_chi <= 0.15\ngini = 0.41\nsamples = 848\nvalue = [951, 393]\nclass = C", fillcolor="#f0b58b"] ;
0 -> 16 [labeldistance=2.5, labelangle=-45, headlabel="False"] ;
17 [label="vm <= 0.02\ngini = 0.5\nsamples = 295\nvalue = [254, 219]\nclass = C", fillcolor="#fbeee4"] ;
16 -> 17 ;
18 [label="vac <= 0.17\ngini = 0.38\nsamples = 79\nvalue = [33, 98]\nclass = l", fillcolor="#7cbeee"] ;
17 -> 18 ;
19 [label="gini = 0.0\nsamples = 1\nvalue = [2, 0]\nclass = C", fillcolor="#e58139"] ;
18 -> 19 ;
20 [label="gini = 0.37\nsamples = 78\nvalue = [31, 98]\nclass = l", fillcolor="#78bced"] ;
18 -> 20 ;
21 [label="tm <= 0.37\ngini = 0.46\nsamples = 216\nvalue = [221, 121]\nclass = C", fillcolor="#f3c6a5"] ;
17 -> 21 ;
22 [label="gini = 0.16\nsamples = 65\nvalue = [94, 9]\nclass = C", fillcolor="#e78d4c"] ;
21 -> 22 ;
23 [label="gini = 0.5\nsamples = 151\nvalue = [127, 112]\nclass = C", fillcolor="#fcf0e8"] ;
21 -> 23 ;
24 [label="delta_h_mix <= 0.37\ngini = 0.32\nsamples = 553\nvalue = [697, 174]\nclass = C", fillcolor="#eba06a"] ;
16 -> 24 ;
25 [label="vm <= 0.03\ngini = 0.09\nsamples = 215\nvalue = [319, 16]\nclass = C", fillcolor="#e68743"] ;
24 -> 25 ;
26 [label="gini = 0.24\nsamples = 18\nvalue = [24, 4]\nclass = C", fillcolor="#e9965a"] ;
25 -> 26 ;
27 [label="gini = 0.08\nsamples = 197\nvalue = [295, 12]\nclass = C", fillcolor="#e68641"] ;
25 -> 27 ;
28 [label="delta <= 0.17\ngini = 0.42\nsamples = 338\nvalue = [378, 158]\nclass = C", fillcolor="#f0b68c"] ;
24 -> 28 ;
29 [label="gini = 0.49\nsamples = 216\nvalue = [202, 149]\nclass = C", fillcolor="#f8decb"] ;
28 -> 29 ;
30 [label="gini = 0.09\nsamples = 122\nvalue = [176, 9]\nclass = C", fillcolor="#e68743"] ;
28 -> 30 ;
}